30.479,-84.629,0.00135871784865633,-0.0131235856687189,0.991719859519598
30.478,-84.629,0.00135856745144451,0.085595517399238,0.987614501354664
30.478,-84.63,0.00135849976057229,-0.0506715183192834,0.939195298372514
30.479,-84.63,0.00135860238327116,0.180045180930324,0.961633265459222
30.479,-84.628,0.00135875791204866,0.15691439708494,0.986486486486487
30.48,-84.628,0.00135872606482796,-0.206142192522309,0.986270022883295
30.48,-84.627,0.00135878363408295,-0.0946346846223249,0.978970669618152
30.479,-84.627,0.00135870189929145,0.334949086522079,0.992618323925315
30.478,-84.628,0.0013586731173126,0.264691072554697,0.997351631154448
30.48,-84.629,0.00135863978638878,0.176360175762757,0.988381099922541
30.481,-84.63,0.00135857499270409,0.0629196759544629,0.982314494425221
30.482,-84.63,0.00135850635732613,-0.171711885505684,0.94227445558244
30.48,-84.63,0.00135864086961792,-0.0356946287772092,0.985849056603774
30.477,-84.629,0.00135856197799934,0.23089364423072,0.989522287337951
30.476,-84.629,0.00135859378528154,0.506141923401234,0.967871485943775
30.476,-84.63,0.0013586627928932,0.0816538999604633,0.984181568088033
30.476,-84.631,0.00135855872703711,0.157911987368524,0.979577464788732
30.476,-84.632,0.00135844747291126,-0.0585483921131225,0.927285006753715
30.476,-84.633,0.0013583975028453,-0.380827115290763,0.898230088495575
30.475,-84.633,0.001358517852136,-0.369578367999992,0.962654950572729
30.475,-84.632,0.00135853907034576,-0.0939152095139992,0.954995871180842
30.475,-84.631,0.00135870020803111,0.18434059327526,0.987993276234691
30.477,-84.63,0.00135853131383007,-0.0821115978948957,0.949101796407186
30.475,-84.63,0.00135856475606022,-0.107708661274335,0.986835443037975
30.475,-84.629,0.00135857283271605,2.50454025219969,0.942740286298569
30.474,-84.629,0.00135857546709948,1.63996700517041,0.752475247524752
30.481,-84.627,0.00135861801027216,0.443755147525334,0.973244147157191
30.481,-84.626,0.00135861954847631,-0.14610658092263,0.954940057875155
30.481,-84.628,0.00135863861547025,0.291040890982537,0.978079331941545
30.477,-84.628,0.00135864864111629,-0.121172323502097,0.957348168752898
30.476,-84.628,0.00135864401642836,0.679205289165275,0.937853107344633
30.474,-84.633,0.00135856975073105,0.146250667791644,0.93139108195263
30.473,-84.633,0.0013584450042254,-0.408261370018774,0.807733619763695
30.473,-84.632,0.00135848184047661,0.549334697592744,0.886514886164623
30.473,-84.631,0.00135847998495912,0.527358964675899,0.809711286089239
30.474,-84.631,0.00135851750067445,-0.369561567688662,0.85111281657713
30.474,-84.63,0.0013585034901347,0.472522595198754,0.894175553732568
30.474,-84.634,0.00135842354489136,-1.24181701040235,0.814696485623003
30.474,-84.632,0.00135858861804192,-0.0618782428914607,0.922083512699096
30.477,-84.632,0.00135843978187708,-0.137081782639115,0.929713340683572
30.478,-84.632,0.00135859741472207,-0.13178026305069,0.916495550992471
30.478,-84.631,0.00135862999993201,-0.175219082661415,0.900612661674609
30.477,-84.631,0.00135842144974951,0.442237152994535,0.906681514476615
30.48,-84.626,0.00135861321306568,-0.283518838433091,0.988171064604186
30.481,-84.629,0.00135859517418768,0.568695883339895,0.971547536433033
30.481,-84.632,0.0013584731029929,0.299103438843983,0.955594507741747
30.482,-84.634,0.00135828061062326,0.0257710167179666,0.725256537570341
30.483,-84.636,0.00135835253358507,0.498240952646078,0.810663764961915
30.483,-84.638,0.00135822004558395,0.808704898680517,0.9375
30.483,-84.639,0.00135829960862141,0.531911023286715,0.9812734082397
30.483,-84.64,0.00135823431918855,-0.669200005217146,0.989949748743719
30.484,-84.639,0.00135830631895391,1.43781275716515,0.918819188191882
30.483,-84.637,0.00135822504174066,0.212514620763356,0.895306859205776
30.483,-84.635,0.00135836119650283,0.170554528953224,0.724264705882353
30.482,-84.633,0.00135835357114428,0.110419885282395,0.769114077669903
30.482,-84.632,0.0013584056854467,-0.108446843626032,0.886759068121498
30.481,-84.631,0.00135857394046696,0.0138110485546073,0.977113325950535
30.48,-84.631,0.00135856717205371,0.322524208940727,0.948921917521457
30.479,-84.631,0.00135864961944248,0.0778418547419636,0.948150012584948
30.479,-84.632,0.00135844486938776,-0.202106212060658,0.831854043392505
30.482,-84.628,0.00135864531546474,-0.0224704502344,0.918333333333333
30.473,-84.63,0.00135852735835868,1.51239875001455,0.925675675675676
30.475,-84.634,0.00135849092695611,0.924596074090721,0.924219910846954
30.476,-84.634,0.0013584091678633,-0.365419491416257,0.90414878397711
30.477,-84.634,0.00135842208446323,-0.648343630955793,0.780621572212066
30.477,-84.633,0.00135846713733302,-0.0432017216452055,0.902204836415363
30.48,-84.632,0.00135844889038659,-0.391568527007844,0.926836861768369
30.479,-84.633,0.00135844513667794,-0.161681219619634,0.617387261738726
30.482,-84.626,0.00135865842758521,-0.92148726563735,0.946280991735537
30.482,-84.627,0.00135866699589164,0.128448608765969,0.873188405797101
30.482,-84.631,0.0013585004531738,0.188135616860095,0.932642945654098
30.48,-84.633,0.00135834130054888,0.45806065404125,0.860205831903945
30.478,-84.633,0.00135849015853985,0.169749932512156,0.777651407449531
30.472,-84.631,0.00135848570574772,1.12998450245939,1
30.479,-84.634,0.00135829208445756,-0.0147007220728991,0.828743315508021
30.48,-84.634,0.001358396985013,0.140290379868149,0.86882292381606
30.484,-84.637,0.00135826376398239,0.155437762984444,0.91812865497076
30.482,-84.641,0.00135817060409852,-0.358444295844955,0.861294583883752
30.482,-84.642,0.00135816693836551,0.142107658462129,0.905044510385757
30.483,-84.642,0.00135823624597548,0.344575626380061,0.966101694915254
30.481,-84.642,0.00135819934609642,0.649342604570408,0.790996784565916
30.48,-84.642,0.00135813130447189,0.634048169002859,0.784
30.479,-84.642,0.00135816484931625,0.886864076531462,0.859773371104816
30.478,-84.642,0.00135822425811177,-0.00397681738864372,0.902857142857143
30.477,-84.642,0.00135827424311331,-0.0030190511589467,0.928558828717587
30.476,-84.641,0.00135830299715047,0.045663862745806,0.950687237026648
30.475,-84.641,0.00135823201317997,0.00276887755698795,0.92994850916058
30.476,-84.642,0.00135829773037753,0.13275827351116,0.912250712250712
30.478,-84.641,0.0013582351694016,0.127695390919032,0.888051499450463
30.479,-84.641,0.00135812950944717,-0.520402413603254,0.819354838709677
30.479,-84.64,0.00135814503715878,-0.112472645754919,0.853809303044352
30.477,-84.643,0.00135825333478109,0.208511474542484,0.930496997572505
30.478,-84.643,0.00135815664158597,-0.0586028221530297,0.914587852494577
30.479,-84.643,0.00135819189765267,0.0969320055886754,0.892399658411614
30.483,-84.641,0.00135819075684326,0.466306441025321,0.968190854870775
30.484,-84.64,0.00135822973622651,1.5319709409648,0.975
30.484,-84.638,0.0013582577485695,-0.456677013773318,0.924319727891156
30.482,-84.638,0.00135826410864189,-0.551141952285959,0.96401028277635
30.481,-84.639,0.00135820884003106,0.397814932214079,0.849176172370089
30.481,-84.641,0.00135824788240668,1.26432790832284,0.793893129770992
30.48,-84.643,0.00135819517920369,0.823779362322722,0.741130091984231
30.479,-84.639,0.00135821117585712,-0.197388715598548,0.889617486338798
30.48,-84.639,0.00135840810609134,0.105426838199466,0.957293035479632
30.481,-84.638,0.00135828248748298,0.356552052690311,0.903553299492386
30.481,-84.637,0.00135844990234907,0.0711710878986936,0.942385718149851
30.481,-84.636,0.00135840304866209,0.0316059173172532,0.809386182218552
30.485,-84.638,0.00135826695863247,0.101263202671535,0.96042216358839
30.482,-84.639,0.00135820158979659,0.720302248974674,0.938095238095238
30.482,-84.637,0.00135827183547746,-0.059151796252145,0.95144804088586
30.481,-84.635,0.00135820090748102,0.012801376508563,0.744970503705945
30.478,-84.635,0.00135849554588418,-0.0360187735821179,0.964519140989729
30.478,-84.637,0.00135831686912161,-0.912871748167373,0.89608636977058
30.478,-84.639,0.0013584002404893,0.136816915963069,0.990589451913133
30.477,-84.644,0.00135819384392311,-0.11494113541838,0.947658402203857
30.48,-84.64,0.00135826438134791,-0.429005176441252,0.743029389600603
30.48,-84.638,0.00135839032936079,0.573377416735134,0.950387596899225
30.481,-84.634,0.001358365705264,-0.0307746759324384,0.738674296614211
30.483,-84.631,0.00135854710945476,0.29423878839829,0.769230769230769
30.483,-84.632,0.00135829877105331,0.549996728414153,0.503521126760563
30.481,-84.625,0.00135865245188455,-0.94509784084627,0.848142164781906
30.483,-84.633,0.00135824712331836,-0.353966398625963,0.385427306775621
30.478,-84.627,0.00135864277657618,-0.317182401723448,0.948905109489051
30.482,-84.629,0.00135863965303455,0.00335048695882412,0.926805143422354
30.482,-84.625,0.00135861819314626,0.641998440418282,1
30.479,-84.626,0.00135864773102093,-1.63379675534762,0.852941176470588
30.483,-84.63,0.00135857556716833,-1.24978189508456,1
30.48,-84.625,0.00135866315373747,0.985794601051507,1
30.477,-84.627,0.00135865754656346,2.62948346191342,0.980392156862745
30.481,-84.633,0.00135830163082777,0.26179405294492,0.792374060673532
30.483,-84.634,-0.0052363646955552,-0.171882194180326,0.555962804588339
30.48,-84.635,0.00135840502260013,0.0926276832844203,0.904708624708625
30.482,-84.635,0.00135832609739524,0.0815789887199734,0.773027280727486
30.48,-84.636,0.00135838599455726,-0.208332123244765,0.878857005642934
30.484,-84.633,-0.0052363646955552,-0.755516142805555,0.15492277992278
30.484,-84.634,0.00135819081381269,-0.225341543493274,0.396585365853659
30.479,-84.636,0.00135831190957756,0.125816071851889,0.919021982951996
30.484,-84.636,0.00135818917533266,1.20224235828815,0.895867768595041
30.482,-84.636,0.00135823527077852,-0.117276208979832,0.768817204301075
30.484,-84.635,0.00135824044499109,0.39244988507748,0.772946859903382
30.485,-84.633,0.00135823379004152,-1.50923551237699,0.194630872483221
30.485,-84.632,0.00135823839349108,-1.5929425327274,0.25
30.48,-84.637,0.00135844544626919,0.421321486001158,0.954213836477987
30.482,-84.643,0.00135818751474205,1.50575083707659,0.841549295774648
30.481,-84.643,0.00135816062395841,0.747131815931626,0.849586776859504
30.481,-84.64,0.00135826566300054,-2.59745515882478,0.642191142191142
30.485,-84.637,0.00135827090215895,1.20410221913134,1
30.485,-84.636,0.00135822936463964,-0.25789487760386,0.8
30.485,-84.635,0.00135822859795525,-0.958159978557079,0.27007299270073
30.485,-84.634,0.00135821983708088,-1.05177826103877,0.244239631336406
30.479,-84.637,0.00135833466038366,0.0854796109465079,0.896353718059144
30.479,-84.638,0.00135838385352763,0.281858261112037,0.936390532544379
30.479,-84.635,0.00135832714350951,0.205045660984641,0.966587112171838
30.484,-84.632,0.00135824225327746,-3.00187879030037,0.368421052631579
30.478,-84.634,0.0013583266549056,0.252762707542802,0.856648199445983
30.485,-84.639,0.00135823220915441,1.19302095039911,0.786127167630058
30.478,-84.636,0.00135842761277952,-0.605583889722926,0.960474308300395
30.478,-84.638,0.00135838751206468,-0.0216506468141411,0.979900360762756
30.477,-84.638,0.00135833046176494,0.124231031994627,0.965492347675426
30.476,-84.638,0.00135842526674349,0.202249978433857,0.969564265382089
30.477,-84.639,0.00135837528864972,-0.00615400832681797,0.948856137263528
30.478,-84.64,0.00135828053111128,0.076161821395043,0.96741214057508
30.477,-84.64,0.00135838630263741,0.114229817975372,0.961850830787572
30.476,-84.64,0.00135823951121245,-0.0161511002382898,0.930854473852917
30.476,-84.639,0.00135844803295591,0.0285988639603063,0.935388165485413
30.472,-84.632,0.00135844394506173,-4.45619327137828,0.615384615384615
30.473,-84.634,0.00135842517910955,-5.52276136675469,0.514348785871965
30.475,-84.639,0.00135843794870639,-0.0338139768451323,0.958280217869973
30.474,-84.639,0.00135832977149547,-0.00133046378314302,0.973476702508961
30.473,-84.639,0.00135838765154905,0.183517889422614,0.97628927089508
30.474,-84.64,0.00135828641675182,0.0800022606794825,0.954643628509719
30.473,-84.64,0.00135835102711175,0.121221924728546,0.960927152317881
30.474,-84.638,0.00135834919252364,0.090676859578595,0.984499461786868
30.477,-84.641,0.00135820330247657,0.208997853063217,0.961073825503356
30.475,-84.64,0.00135825922836773,-0.0555575449789224,0.930849901682325
30.473,-84.638,0.00135839711331295,0.101278922395246,0.970876963350785
30.472,-84.639,0.00135832738123505,0.0457755732107811,0.936286976308392
30.472,-84.64,0.001358320938653,0.202783934513781,0.970668655232414
30.473,-84.641,0.00135830064482045,-0.0267793094623165,0.952931461601982
30.474,-84.641,0.00135816657577331,-0.120723375982518,0.878379347436357
30.474,-84.642,0.00135826343073567,-0.451133429826811,0.837131248895955
30.475,-84.642,0.00135812581668081,-0.183183672301174,0.846930486248114
30.475,-84.638,0.00135840981442342,0.188680494548027,0.972470238095238
30.475,-84.643,0.00135816479625774,0.179310300579491,0.909382406245643
30.474,-84.643,0.00135824369200444,-0.10919235479186,0.91218872870249
30.473,-84.643,0.00135825896102379,0.196095194001875,0.952131833638504
30.473,-84.642,0.00135824286967917,0.328990006309989,0.939847009735744
30.472,-84.641,0.0013582312891303,0.0523648856236596,0.877539503386005
30.476,-84.644,0.00135819241688419,-0.51479838991616,0.931468531468531
30.472,-84.638,0.00135837532736492,0.170024978122177,0.885259631490787
30.476,-84.643,0.00135815198426646,-0.0353271468615003,0.91359173126615
30.475,-84.644,0.00135818771190801,-0.137254573596454,0.972191323692992
30.474,-84.644,0.00135820180765495,0.156976201156566,0.961111111111111
30.473,-84.644,0.00135820147608843,0.819847078804147,0.92450495049505
30.472,-84.643,0.00135822265012621,0.0755960809469876,0.9
30.472,-84.642,0.00135821368148287,0.0373450917834151,0.995614035087719
30.478,-84.644,0.00135818437919315,0.335762301040588,0.882629107981221
30.48,-84.641,0.00135826510749061,-0.651860238387059,0.737364620938628
30.483,-84.643,0.00135821036902321,-0.638468105491749,0.838709677419355
30.484,-84.643,0.00135821107975352,0.847441037368315,0.842105263157895
30.485,-84.643,0.0013581885779512,2.72405377325838,0.545454545454545
30.485,-84.642,0.00135821063484733,0.405316188885218,0.734939759036145
30.485,-84.641,0.00135822342385999,-1.39702395152608,0.80188679245283
30.485,-84.64,0.00135819290526398,0.820645821146783,0.870229007633588
30.472,-84.633,0.00135842252127346,0.776632983659084,0.710789766407119
30.477,-84.636,0.00135843833604363,-1.09343391393347,0.78021978021978
30.484,-84.63,0.00135855871528318,-0.217915449540234,1
30.486,-84.634,0.00135823622188442,1.92308684355379,0
30.482,-84.64,0.00135817349518005,-0.279570613258588,0.869639794168096
30.483,-84.626,0.00135864448415219,0,NaN
30.478,-84.625,0.00135864995991678,-8.20170278622442,0.263157894736842
30.472,-84.634,0.001358427764955,-0.250284469045642,0.726230613621038
30.484,-84.642,0.00135818407047567,-0.774908707136913,0.76865671641791
30.484,-84.641,0.00135824767178122,2.99716073083474,0.968911917098446
30.477,-84.635,0.00135842045051393,-6.49606760404499,0.625
30.471,-84.64,0.00135832377930083,-1.6279994958932,0.75
30.473,-84.635,0.00135842365971239,-10.9654995767227,0.375
30.471,-84.633,0.00135844185457645,-1.22014133940601,0.842105263157895
30.484,-84.631,0.00135829959933478,1.38765309653343,0.666666666666667
30.478,-84.626,0.00135866425088707,-3.50634094471885,0.448275862068966
30.483,-84.628,0.00135863014516817,5.66929171641674,1
30.482,-84.624,0.00135865128162375,0,NaN
