30.479,-84.629,0.00106371615186598,0.00153409654806542,0.00244285002886279
30.478,-84.629,0.00106061671552473,0.00138127339175344,0.00169675390923013
30.478,-84.63,0.00106067772195234,0.00138111046184929,0.0016969181231704
30.479,-84.63,0.00106063500822294,0.00138115038280888,0.00169688933458491
30.479,-84.628,0.00106064755738373,0.00138120551178407,0.00169683096158081
30.48,-84.628,0.00106086237263197,0.00138101487119304,0.00169702792008501
30.48,-84.627,0.00106051305653032,0.00138135879990197,0.00169667612821196
30.479,-84.627,0.0010605591979951,0.0013812764949042,0.001696763095093
30.478,-84.628,0.00106061801523977,0.00138123138459685,0.00169680635820859
30.48,-84.629,0.00106076166582096,0.00138106959365057,0.00169696595005525
30.481,-84.63,0.00106069017267644,0.00138110948973405,0.00169692303114862
30.482,-84.63,0.00106088191537903,0.00138092418725667,0.0016971025140383
30.48,-84.63,0.00106066099938713,0.00138116286057047,0.00169687554236837
30.477,-84.629,0.00106074640699879,0.00138108474900195,0.00169694934772059
30.476,-84.629,0.00106077900425669,0.00138102880711712,0.00169700950671792
30.476,-84.63,0.0010607963476019,0.00138104564987962,0.00169699474888172
30.476,-84.631,0.00106102849122854,0.0013807777168469,0.0016972507761334
30.476,-84.632,0.00106112749385896,0.00138067287552603,0.00169735539506498
30.476,-84.633,0.00106114863369149,0.00138060858073243,0.00169740630609018
30.475,-84.633,0.00106092691727622,0.00138086096929305,0.00169716750410302
30.475,-84.632,0.00106087599019352,0.00138094045772418,0.00169709607327747
30.475,-84.631,0.00106077848373062,0.00138108619837366,0.00169695917212139
30.477,-84.63,0.00106068139680194,0.00138110683822284,0.00169692276749893
30.475,-84.63,0.00106081722450643,0.0013809862301551,0.00169704310475608
30.475,-84.629,0.00106080092015461,0.00138100593344919,0.00169702655772254
30.474,-84.629,0.00106088276619631,0.00138092068846522,0.00169710962244694
30.481,-84.627,0.00106071645220558,0.00138109599842389,0.00169693818140019
30.481,-84.626,0.00106071013771967,0.00138111950324154,0.00169691467658254
30.481,-84.628,0.0010606615896993,0.00138116526848433,0.00169687070437048
30.477,-84.628,0.00106067381622137,0.00138116044776824,0.00169687534950226
30.476,-84.628,0.00106068640984794,0.00138114778322497,0.00169688801222273
30.474,-84.633,0.00106101927124515,0.00138076981516451,0.00169726213389872
30.473,-84.633,0.00106112612623708,0.0013806328634737,0.00169739103982794
30.473,-84.632,0.00106100839739585,0.00138073107468313,0.00169729835629226
30.473,-84.631,0.00106104954413045,0.00138072108957114,0.00169730564766879
30.474,-84.631,0.00106097467662139,0.00138080514799631,0.00169722157589936
30.474,-84.63,0.00106097485504486,0.00138081179870496,0.00169721490004487
30.474,-84.634,0.00106112592815485,0.00138063537911544,0.00169738873711668
30.474,-84.632,0.00106083212153056,0.00138097408654488,0.00169705241698867
30.477,-84.632,0.00106095840306037,0.00138082918402297,0.00169719885417179
30.478,-84.632,0.00106092825145147,0.00138085927946452,0.00169717143000223
30.478,-84.631,0.00106090030344679,0.00138092499171873,0.00169711248913482
30.477,-84.631,0.001060856263159,0.00138090920316151,0.00169711079334088
30.48,-84.626,0.0010606354110626,0.00138119858488824,0.00169683623667387
30.481,-84.629,0.00106068370418982,0.00138114092694043,0.00169689325288366
30.481,-84.632,0.00106096250343333,0.00138082192049562,0.00169720333155501
30.482,-84.634,0.00106126587844841,0.00138045546108676,0.0016975624196689
30.483,-84.636,0.00106115538116701,0.00138058206349801,0.00169744831370449
30.483,-84.638,0.00106131630886553,0.0013803979616372,0.00169761575833693
30.483,-84.639,0.00106134113237937,0.00138037951104633,0.00169764796905557
30.483,-84.64,0.00106143221064898,0.00138026581102267,0.00169775671917259
30.484,-84.639,0.00106143363998713,0.00138025426384334,0.00169776562713762
30.483,-84.637,0.00106130855761605,0.00138040582847023,0.00169761624129999
30.483,-84.635,0.00106129641879642,0.00138041976969983,0.00169761076234002
30.482,-84.633,0.00106119817949107,0.00138053656697816,0.00169748347212887
30.482,-84.632,0.00106105755446138,0.00138070630066781,0.00169731539139103
30.481,-84.631,0.00106074582750269,0.00138105106998512,0.00169697742923018
30.48,-84.631,0.00106081452246549,0.00138097366133615,0.00169706689592551
30.479,-84.631,0.00106089293461698,0.00138090635592243,0.00169713235733461
30.479,-84.632,0.00106108790971104,0.00138067789872451,0.00169735017022936
30.482,-84.628,0.00106066578309702,0.00138116088956558,0.0016968757877972
30.473,-84.63,0.00106097789094372,0.0013808087628061,0.00169721915145153
30.475,-84.634,0.00106098731291094,0.00138078637647189,0.00169723894184088
30.476,-84.634,0.00106130074633522,0.00138046477945023,0.00169756930698488
30.477,-84.634,0.00106106915751532,0.00138069680347776,0.00169732558989866
30.477,-84.633,0.00106114912306743,0.00138061668536813,0.00169741681895924
30.48,-84.632,0.00106115265224926,0.00138066531531254,0.00169735909979097
30.479,-84.633,0.00106135722636083,0.0013803772003725,0.00169763563060829
30.482,-84.626,0.00106067648531788,0.00138115538070155,0.00169687879912253
30.482,-84.627,0.00106066001531567,0.00138116664352805,0.00169686664400909
30.482,-84.631,0.00106098343039301,0.00138081166110627,0.00169721541121903
30.48,-84.633,0.00106113491599044,0.00138060152076657,0.00169742504883456
30.478,-84.633,0.00106108804924546,0.0013806777591901,0.00169734333920085
30.472,-84.631,0.00106104515996909,0.00138072674286397,0.00169729950810113
30.479,-84.634,0.00106106502328867,0.00138070842339272,0.00169731078244918
30.48,-84.634,0.00106086759949263,0.00138089783969743,0.00169712564416117
30.484,-84.637,0.00106140565781594,0.00138031687197237,0.00169770193264928
30.482,-84.641,0.00106171763412513,0.00137998291908973,0.00169803092813604
30.482,-84.642,0.00106147433060671,0.00138021860733238,0.0016978074765768
30.483,-84.642,0.00106145617713182,0.00138023215228551,0.00169778819409416
30.481,-84.642,0.00106158198847748,0.00138009046865927,0.00169792097636224
30.48,-84.642,0.0010616184183784,0.00138004688794286,0.00169797100222248
30.479,-84.642,0.00106164569995961,0.00137999976126315,0.00169801290791574
30.478,-84.642,0.00106157642535743,0.00138009386943072,0.00169792276319392
30.477,-84.642,0.00106138799508558,0.00138029755745193,0.0016977163081162
30.476,-84.641,0.00106138898929247,0.00138036450736496,0.00169765370201758
30.475,-84.641,0.00106137454955475,0.0013803405564349,0.00169768105214217
30.476,-84.642,0.00106133154781803,0.00138038399313027,0.00169762625237804
30.478,-84.641,0.00106154919787058,0.00138012884999453,0.00169788409145824
30.479,-84.641,0.00106162897462358,0.00138004435555956,0.00169797911140609
30.479,-84.64,0.00106162287602496,0.00138005089922842,0.0016979722410902
30.477,-84.643,0.00106153748231558,0.00138015691602955,0.00169786549914
30.478,-84.643,0.00106167788245387,0.00137997782311139,0.00169804295969739
30.479,-84.643,0.00106168973825963,0.00138000262227319,0.00169801398783738
30.483,-84.641,0.00106143605324409,0.00138023376901402,0.00169778075724025
30.484,-84.64,0.00106142824141892,0.00138026984507202,0.00169774683957777
30.484,-84.638,0.00106142759990889,0.0013802840484018,0.00169773611534621
30.482,-84.638,0.00106132168046433,0.0013803926793051,0.00169763214157827
30.481,-84.639,0.00106154128443826,0.00138015240112973,0.00169786288750641
30.481,-84.641,0.00106156330181835,0.00138011922548817,0.00169789360018111
30.48,-84.643,0.00106156697119372,0.00138010128607599,0.00169791378882166
30.479,-84.639,0.00106142591919998,0.00138027912043929,0.00169775249990934
30.48,-84.639,0.00106128724625723,0.00138042942356906,0.00169758380153895
30.481,-84.638,0.0010613776928648,0.00138033666690463,0.00169768645395696
30.481,-84.637,0.00106105087607781,0.00138068375464459,0.00169734209353055
30.481,-84.636,0.00106097690242726,0.00138077711399982,0.00169724090564103
30.485,-84.638,0.00106134751183496,0.00138036476753278,0.00169765696659122
30.482,-84.639,0.00106124385430572,0.00138045735501391,0.00169757242417825
30.482,-84.637,0.00106144157434679,0.00138027216180784,0.00169775097101541
30.481,-84.635,0.00106133055514897,0.00138036219418653,0.00169765800324275
30.478,-84.635,0.00106096694088382,0.00138082032885108,0.00169720453897846
30.478,-84.637,0.00106129631650203,0.0013804169050174,0.00169761687292032
30.478,-84.639,0.00106116517930645,0.00138059221978481,0.00169743139211334
30.477,-84.644,0.0010615446144112,0.00138012887183746,0.00169788672970631
30.48,-84.64,0.00106148863617098,0.00138019599603533,0.00169782197173256
30.48,-84.638,0.00106136118422443,0.00138038789696567,0.00169762485047979
30.481,-84.634,0.00106133612821401,0.00138039663017703,0.00169761777198079
30.483,-84.631,0.00106092955946154,0.00138086191653671,0.00169716207350282
30.483,-84.632,0.00106125191585779,0.00138047928352466,0.00169753902580312
30.481,-84.625,0.00106067696097079,0.00138115748219846,0.00169687898901944
30.483,-84.633,0.00106138689642849,0.00138031446535286,0.00169768770927634
30.478,-84.627,0.00106067488473988,0.00138115901737195,0.0016968766059017
30.482,-84.629,0.00106069738657564,0.00138114124977707,0.00169689472307774
30.482,-84.625,0.00106071205673782,0.0013811185999278,0.00169691557989628
30.479,-84.626,0.00106067493022967,0.00138115932198168,0.00169687583587408
30.483,-84.63,0.00106083346544735,0.00138096928179875,0.00169705781270177
30.48,-84.625,0.00106066442455201,0.00138117022463885,0.00169686493321692
30.477,-84.627,0.00106067366070246,0.00138116240187102,0.00169687333234283
30.481,-84.633,0.00106110739181385,0.00138069025862851,0.00169733292517457
30.483,-84.634,-0.00911658610753859,-0.0055792244723489,-0.0021522321647675
30.48,-84.635,0.00106106069437613,0.00138069542664675,0.00169733716999888
30.482,-84.635,0.00106131447186273,0.0013804303690725,0.00169758520582123
30.48,-84.636,0.00106096538007979,0.0013807907409431,0.00169724507071362
30.484,-84.633,-0.0134078780004515,-0.0062451358802498,-0.00181968412462412
30.484,-84.634,0.00106143151225539,0.00138026398067477,0.00169774967041867
30.479,-84.636,0.00106133582763318,0.00138039784990142,0.00169763738056924
30.484,-84.636,0.00106136305691009,0.00138034337832665,0.00169767530276803
30.482,-84.636,0.00106123248091858,0.00138048553272309,0.00169754560494378
30.484,-84.635,0.00106138086255231,0.00138032057005727,0.00169769643341393
30.485,-84.633,0.00106142283635847,0.0013802829549696,0.0016977332215972
30.485,-84.632,0.00106142001919357,0.001380286213937,0.00169772986546153
30.48,-84.637,0.00106108556086549,0.00138066900394049,0.00169736245889689
30.482,-84.643,0.00106152950667605,0.00138015130103026,0.00169786768945516
30.481,-84.643,0.00106157534318908,0.00138011832637489,0.00169789407609145
30.481,-84.64,0.00106151203960446,0.00138017259260185,0.00169784518232807
30.485,-84.637,0.00106135790736851,0.00138035801273488,0.00169766412743142
30.485,-84.636,0.00106138285694727,0.00138032027858807,0.00169769654841153
30.485,-84.635,0.00106139347400871,0.00138030983476977,0.00169770584980618
30.485,-84.634,0.00106141818799996,0.0013802858144862,0.00169772934397074
30.479,-84.637,0.00106119416106411,0.00138055164495451,0.0016974761405227
30.479,-84.638,0.00106119462835048,0.0013805509148207,0.00169747687065651
30.479,-84.635,0.00106097136482876,0.00138082126561602,0.00169721874078559
30.484,-84.632,0.00106137932653734,0.00138032982837866,0.00169768712728716
30.478,-84.634,0.00106090019272871,0.00138086561570684,0.00169715498717693
30.485,-84.639,0.00106140608454728,0.0013802953859142,0.00169772552035142
30.478,-84.636,0.00106121271588553,0.00138055309255002,0.00169747593419633
30.478,-84.638,0.00106118640251848,0.00138059465604543,0.00169743341809928
30.477,-84.638,0.00106109372516413,0.00138069533824699,0.00169733965649676
30.476,-84.638,0.00106113552001896,0.00138063605965331,0.00169738385996505
30.477,-84.639,0.00106127725583415,0.00138047708565144,0.00169755395153077
30.478,-84.64,0.00106124786055863,0.0013805074522161,0.0016975326075404
30.477,-84.64,0.00106129201402639,0.00138046232745921,0.00169756474909623
30.476,-84.64,0.00106134998269621,0.00138036522726209,0.00169766454060106
30.476,-84.639,0.0010612847352701,0.00138045090712061,0.00169757532560971
30.472,-84.632,0.00106111397535104,0.00138064733191925,0.00169738193678033
30.473,-84.634,0.00106115908469031,0.00138059674780745,0.00169742777716477
30.475,-84.639,0.00106103665654555,0.00138074982891261,0.00169727220845424
30.474,-84.639,0.00106116157530825,0.0013806065731005,0.00169742695534725
30.473,-84.639,0.00106115049259812,0.00138061765581063,0.00169740706310923
30.474,-84.64,0.00106124246636233,0.00138051110629833,0.00169751941540077
30.473,-84.64,0.00106124629153946,0.00138050727248714,0.00169751432002616
30.474,-84.638,0.00106114230903071,0.00138062583937804,0.00169740619257871
30.477,-84.641,0.00106149518421666,0.00138024355946813,0.00169778032762869
30.475,-84.64,0.00106133883523279,0.00138041002136231,0.00169761590123296
30.473,-84.638,0.00106116473725887,0.0013805980108307,0.00169742924512955
30.472,-84.639,0.0010612320793302,0.00138052155824223,0.00169749845756088
30.472,-84.64,0.00106125037614116,0.0013805011476384,0.00169752344782061
30.473,-84.641,0.00106134425728979,0.00138037145200193,0.00169765111918887
30.474,-84.641,0.00106151708620757,0.0013801595087293,0.00169785835872401
30.474,-84.642,0.00106156843024546,0.00138011255154657,0.00169789930385324
30.475,-84.642,0.00106180922486482,0.00137984545149689,0.00169816118608702
30.475,-84.638,0.00106115168307982,0.0013806373803313,0.00169738503643077
30.475,-84.643,0.00106154366696815,0.00138011353155258,0.0016979051970356
30.474,-84.643,0.00106160617151458,0.00138005715315288,0.00169796311701551
30.473,-84.643,0.00106152258435159,0.00138016816002409,0.00169784700565616
30.473,-84.642,0.00106146484762947,0.00138021682761867,0.00169780496871782
30.472,-84.641,0.00106147010742493,0.00138020568786424,0.00169781562325241
30.476,-84.644,0.00106156048699517,0.00138011616357973,0.00169789935529591
30.472,-84.638,0.00106120358267246,0.00138055784499226,0.00169746814496973
30.476,-84.643,0.0010614884019396,0.00138017061960555,0.00169785425743231
30.475,-84.644,0.00106153537057591,0.00138012596047825,0.00169789159975111
30.474,-84.644,0.00106153886291344,0.00138013998065074,0.00169787782030692
30.473,-84.644,0.00106150300708858,0.00138017152933458,0.00169784700878657
30.472,-84.643,0.00106148751779527,0.00138019087735633,0.00169782832689226
30.472,-84.642,0.0010614759283883,0.00138020097663916,0.00169781862268631
30.478,-84.644,0.00106154588562313,0.00138012167921004,0.0016978947614437
30.48,-84.641,0.00106154419641988,0.00138013021698333,0.00169788883782684
30.483,-84.643,0.00106152395272708,0.00138016267006094,0.00169785590529402
30.484,-84.643,0.00106152372999797,0.00138016921827622,0.00169785001599356
30.485,-84.643,0.00106146965829185,0.00138021896977933,0.00169779912284855
30.485,-84.642,0.00106145813388273,0.00138023660093313,0.00169778169882333
30.485,-84.641,0.00106146143895079,0.00138023814176862,0.00169778203997689
30.485,-84.64,0.00106141134573742,0.00138026926390368,0.00169774453454046
30.472,-84.633,0.00106115611490766,0.00138059827747061,0.00169742595282863
30.477,-84.636,0.00106108433518238,0.00138068522638094,0.00169734224043899
30.484,-84.63,0.00106088707847309,0.00138091477520974,0.00169711159334152
30.486,-84.634,0.00106142489370908,0.00138028130856187,0.00169773501477695
30.482,-84.64,0.00106146484428803,0.00138024734851384,0.00169778058436198
30.483,-84.626,0.00106068058785423,0.00138115286939387,0.00169688276034917
30.478,-84.625,0.00106067064113964,0.00138116356690943,0.00169687159094633
30.472,-84.634,0.00106115917854055,0.00138059665395721,0.00169742695675789
30.484,-84.642,0.00106147075030237,0.00138021534666623,0.0016978053033953
30.484,-84.641,0.0010615177306363,0.0013801812984241,0.0016978382504568
30.477,-84.635,0.0010610942175815,0.00138067174341158,0.00169735558258545
30.471,-84.64,0.00106123654444872,0.00138051556543632,0.0016975080590387
30.473,-84.635,0.00106114257361633,0.00138061814921228,0.00169740659492408
30.471,-84.633,0.00106115721975876,0.00138060176995201,0.00169742282509284
30.484,-84.631,0.00106124874662992,0.0013804825318452,0.00169753574303701
30.478,-84.626,0.00106067406949009,0.00138116302733001,0.00169687259735229
30.483,-84.628,0.00106074250708701,0.00138108620825732,0.00169694707927982
30.482,-84.624,0.00106068655919721,0.00138114598692005,0.00169688875813772
